nep4 3 O Al Ga 
cutoff 6 4 106 33
n_max 4 4
basis_size 8 8
l_max 4 2 0
ANN 30 0
  1.6072904e+00
  5.3590931e-02
  1.7041925e+00
 -6.2659985e-01
  6.0211748e-01
 -1.2755072e-01
  3.9973300e-02
 -6.8961370e-01
 -5.3534365e-01
  2.4946436e-04
  1.2253349e-01
  1.1186367e-01
 -1.1127799e-01
 -4.2132530e-02
  6.3141277e-05
 -7.7791572e-02
  2.4439561e-01
 -3.5578221e-01
 -2.2331826e-04
 -1.5222229e-04
  2.1281822e-03
  4.2105332e-01
 -3.0397041e-05
  1.3691811e-01
 -1.4799419e-06
  2.3500893e-04
 -1.2623092e-04
  6.8522495e-01
  1.0631672e-03
  9.3753384e-05
  1.0910012e-01
 -9.1758214e-02
 -3.0445708e-02
 -3.6360607e-02
 -7.1580686e-02
  1.7682946e-01
 -1.0732373e-02
 -2.1172517e-03
 -4.5323369e-01
 -5.0918996e-01
  1.4154613e-01
 -8.9874817e-03
  1.3490042e-01
 -1.8033785e-04
 -9.1116942e-02
  2.5497139e-01
 -7.7251583e-02
  1.8572713e-01
 -3.2293800e-01
 -9.3509983e-03
  3.2758972e-04
 -2.0405586e-04
  2.3042278e-01
 -2.9429165e-01
  6.6215711e-05
  1.5028003e-04
  2.0094578e-04
 -1.0993474e-01
  1.3244142e-01
 -4.2254833e-05
 -1.7533380e-01
 -1.0116443e-03
 -9.6484259e-02
 -3.8724735e-02
 -1.5067463e-01
  2.1541993e-01
 -7.6375483e-04
 -7.8115670e-05
 -2.6485881e-01
 -1.5126897e-01
  2.3966752e-01
  6.5720487e-06
  3.4494555e-04
 -2.2934128e-05
 -9.9251280e-05
  6.0207361e-01
 -2.9445428e-04
 -1.1886896e-02
 -4.5667871e-04
 -1.0258670e-04
  1.6728462e-05
 -4.6036593e-04
  9.7791955e-04
 -3.2795791e-03
  3.3999054e-04
  2.6281852e-01
  1.9318936e-04
  9.3535447e-05
  7.9796395e-05
 -1.1864506e-04
 -5.8290367e-03
  1.8392879e-01
 -2.2208907e-01
  3.2068126e-02
 -7.8856677e-02
 -3.4526805e-04
 -1.4178899e-04
 -2.3830921e-04
 -1.0042133e-01
  2.7434850e-02
 -5.5609946e-04
 -4.9996897e-06
 -3.1471289e-05
 -3.7382702e-05
  2.6925122e-02
 -2.8106427e-01
 -1.4513594e-04
 -1.2441786e-04
  1.8700893e-04
 -1.2947762e-03
  4.9758586e-04
  1.8783775e-04
 -3.1455624e-04
  1.1512292e-04
  1.6351315e-04
 -1.3426009e-03
 -4.5333680e-04
 -7.0720445e-05
 -2.9888964e-04
 -1.4521868e-04
 -6.4822889e-05
  8.8339293e-05
  9.3612689e-05
 -3.0250287e-05
  1.4791010e-01
  7.5608177e-06
 -6.5233326e-05
  1.6146175e-04
  7.1555846e-06
 -1.8324886e-04
 -7.7784782e-05
 -1.9720639e-04
 -2.9216832e-04
  2.1793126e-04
 -2.8481618e-05
  4.4737745e-04
  3.6488203e-04
  1.7148975e-04
 -1.6245227e-04
  5.4056934e-05
 -1.3526464e-04
  1.8051478e-05
 -2.0934019e-04
  1.4556093e-04
 -1.4947022e-04
  6.9666137e-05
 -1.2334171e-04
 -2.5160730e-04
  9.2793530e-04
  1.8395540e-06
 -7.6324475e-01
 -4.6318138e-01
 -9.2684694e-02
 -1.9958569e-01
  3.5530138e-01
  1.5160255e-01
 -4.8648328e-01
  1.4395846e-01
  4.4173789e-01
  1.0982332e-03
  3.1757285e-04
  1.0041963e+00
  1.1551581e-01
 -5.3899712e-05
  3.2563138e-04
  2.6461014e-01
  1.7470896e-04
  5.9874624e-01
 -1.6432999e-04
  2.2547147e-03
  1.8955759e-03
 -3.8517192e-01
  3.6353454e-01
  4.3871702e-04
 -1.4833010e-04
  2.7056960e-05
 -2.6790358e-04
 -4.8152208e-02
 -5.5003111e-05
  1.8066334e-04
  3.3467960e-01
 -2.1331575e-04
  5.6445046e-05
 -1.3788004e-04
  1.2476353e-01
  3.5746643e-04
 -1.3596205e-04
  2.5135648e-04
 -1.6469654e-04
 -1.2087682e-04
  6.2561693e-04
  9.9335062e-05
  3.6134120e-04
  9.0461013e-05
 -2.3493370e-04
  7.3089881e-04
 -7.4195879e-04
  5.5353064e-04
 -3.4895312e-04
  5.7406294e-05
  4.4866517e-04
  1.2024405e-04
 -2.7419017e-05
 -6.7613750e-05
 -4.7750887e-05
 -6.2111433e-04
 -4.6822370e-05
  8.9900503e-05
 -3.2179039e-05
  1.7596234e-04
 -6.2952197e-01
 -1.8466406e-05
 -3.0382524e-05
  9.7761909e-04
 -1.5170141e-02
 -2.0209786e-04
  4.8969385e-05
 -2.0970883e-04
 -3.6068191e-03
 -3.3596900e-04
 -8.5281103e-04
 -4.1262632e-05
 -1.6552439e-02
  1.3948148e-05
  9.4760231e-05
 -1.6667110e-01
  3.0425981e-05
 -2.9035119e-02
  3.4273454e-04
 -8.0581458e-06
 -8.3951934e-05
  7.6040371e-05
 -4.4102385e-03
  2.9202428e-04
 -1.3637102e-05
 -4.2024640e-05
 -6.2773988e-04
  7.6687610e-04
 -1.3699244e-04
  4.2498304e-04
  3.5124618e-01
 -1.9663045e-01
 -8.3778530e-01
  9.7800642e-02
 -1.5044444e-02
 -1.4700764e+00
  1.0505012e-04
 -3.8654812e-02
 -1.1813759e-01
  1.1696433e+00
  6.1931100e-02
  8.0895334e-01
 -1.2289871e+00
  8.6382977e-05
  4.2843598e-01
 -2.7215284e-01
 -1.0599836e-01
 -1.1227811e-01
  2.5132427e-01
 -4.6531978e-01
  6.0563046e-01
 -3.2097977e-01
 -5.3135031e-01
  4.4791621e-01
 -2.0419472e-01
 -2.3897749e-03
  2.6225412e-04
  6.1889946e-01
 -2.3755652e-03
  9.6112031e-05
  2.5122824e-01
  4.5150840e-01
  1.8826053e+00
 -3.2287758e-02
 -4.8403360e-02
  2.9685697e-01
  8.2606246e-04
 -3.8225710e-01
 -4.6294326e-01
 -8.5745198e-01
  1.8855192e-01
 -9.8740745e-01
 -2.0400862e-01
  5.7222869e-02
 -6.7535394e-01
  9.5146686e-01
 -8.6009033e-02
  3.9440030e-01
 -2.0454435e-01
 -1.9508681e+00
  2.1189445e-01
  1.2799795e-01
  4.7295859e-01
 -1.2962583e-04
  2.2567313e-03
  1.6903600e-02
  3.6270873e-04
  5.3122270e-01
  6.7014276e-05
  3.9317420e-05
  8.6734164e-01
  5.8833737e-02
  1.4422610e+00
 -2.2701329e-01
  2.5911990e-01
  3.1992558e-01
  3.1581469e-02
  1.5706082e-01
  1.9329476e-01
 -6.1195601e-02
 -3.4607980e-01
  2.0672730e-01
 -1.2572838e-01
 -3.3868965e-02
 -1.2943318e-05
  3.9059833e-01
 -5.6418651e-01
  2.5440686e+00
 -5.4476184e-01
 -4.0532002e-01
  1.0092905e-04
 -2.9509589e-02
  2.3274157e+00
 -6.4054418e-01
  1.9775160e-01
 -2.2832070e-04
 -2.0814852e-03
 -3.3132112e-01
 -1.0727796e-04
  1.4852459e-04
  8.6305022e-02
 -2.0369611e+00
  4.2312837e-01
  2.4481218e+00
  5.4379177e-01
  1.4563432e-01
 -4.5266274e-01
 -1.9086244e+00
 -3.4230372e-01
  4.1458985e-01
 -4.8362714e-01
 -5.2102766e-04
 -6.8808186e-01
 -3.0865609e-05
  3.0342478e-01
 -1.8708016e+00
 -7.1589810e-01
 -4.2230609e-01
  1.2675330e-02
  5.3881031e-02
 -9.6805330e-04
  8.3504772e-01
 -1.0200560e+00
  7.1562380e-02
  5.1451927e-01
  1.2597145e-01
 -2.4271976e-04
  2.8913471e-04
 -1.0801977e-01
  2.0962761e-06
 -3.7083479e-05
 -1.9264130e-04
  7.0797495e-04
  6.2345312e-04
  6.1691586e-05
 -1.2495185e-04
 -4.7749240e-04
  1.0839719e-04
 -4.0828486e-04
 -2.6598014e-04
 -1.7223587e-04
  1.6326319e-04
 -5.5668388e-05
 -3.3130098e-04
 -1.4420346e-04
 -4.3056993e-05
 -2.5529842e-05
  1.7846777e-04
  2.9153057e-04
 -4.1697736e-04
 -1.0607551e-03
  1.5196760e-05
 -3.6258189e-04
  1.0121206e-04
  1.3261636e-04
  8.9183704e-05
  1.5196695e-04
  2.8688717e-04
 -1.2211946e-03
  4.8852700e-04
 -4.2873168e-01
 -4.3815267e-01
 -2.3031591e-01
 -3.3426430e-02
 -8.8217288e-01
 -6.6052526e-01
 -4.1189080e-05
 -5.2619798e-05
  4.2155239e-01
  1.2674956e-01
 -9.1489452e-01
 -1.7431451e-01
 -8.2057160e-01
 -6.0774032e-02
  1.3726309e-04
 -7.7838296e-01
  9.8276418e-01
  8.8678403e-03
 -8.9493857e-05
  6.3250142e-01
 -4.0723285e-01
  6.6718139e-04
 -1.0915776e-01
  2.8958078e-05
  1.1559806e-01
 -5.1044977e-01
  1.9879296e-04
  6.7264163e-01
 -2.3610868e-04
  3.5868841e-04
  1.3814312e-01
 -4.1645458e-03
 -2.9900307e-03
 -3.9262148e-03
 -1.4604715e-03
  2.1181323e-04
  3.5325695e-05
  2.4813702e-04
  1.3296797e-03
 -2.1854308e-03
  2.0773250e-03
  8.9937059e-04
 -1.4887226e-04
 -1.8762530e-05
  8.0187210e-06
  3.2488078e-01
 -1.0499466e-03
 -5.3088134e-03
 -1.7262207e-03
  3.4865265e-04
 -8.5544429e-04
 -8.1999599e-07
  8.5255015e-05
  2.6170417e-05
  1.4730994e-04
  1.7633857e-04
  1.2085454e-06
 -3.6663994e-05
  1.8135225e-04
  4.9874689e-06
 -1.6309897e-03
 -2.6274894e-04
 -3.7193325e-04
  1.4625257e-04
  9.6256146e-03
  5.1017159e-05
  4.9381921e-05
 -3.9676944e-04
 -3.1277127e-04
 -1.5722822e-04
 -1.5939383e-01
 -5.5847259e-04
  6.0703146e-04
 -2.3106864e-05
  1.2364383e-04
 -1.8502382e-04
  7.5359171e-04
  2.5281347e-02
 -2.1953639e-04
  2.7579148e-04
 -2.9863404e-05
 -2.0780841e-04
 -9.1602247e-05
 -1.6101921e-04
  2.6970636e-05
  4.2104232e-04
  2.2662625e-04
 -1.4455541e-04
  3.7279871e-04
 -1.9224884e-01
 -2.6517466e-01
 -7.4968022e-01
 -1.5704772e+00
  3.8551074e-02
 -4.6055917e-02
 -1.0306003e+00
  8.9529675e-01
 -1.7847733e-01
 -1.0059275e-01
  4.6930295e-01
 -8.5394335e-01
  6.7429906e-01
  3.4837000e-02
  5.6247283e-03
  2.6931331e-05
 -4.7250364e-02
  1.6431726e+00
  2.1414781e-01
  4.2132316e-03
 -5.3437561e-01
  6.2345243e-01
  1.8802211e-01
 -2.7925062e-01
  2.6745123e-01
 -1.0111040e-01
 -8.2001099e-03
 -9.8618692e-01
  2.3446733e-04
  2.6319851e-04
  7.4782874e-05
 -4.5742659e-04
  3.4829890e-04
  8.7278109e-05
 -1.1637677e-05
 -2.2672348e-06
  1.5929602e-04
  1.1444482e-04
  1.4412338e-04
 -7.7023375e-04
 -3.6039273e-04
 -5.5059002e-07
 -1.3339482e-04
 -5.4398133e-05
 -1.3371056e-04
  9.6476106e-05
  2.3442855e-05
 -4.8627413e-04
  2.3016085e-04
  2.4476522e-05
  4.0466571e-04
  6.5358367e-04
 -7.3082505e-05
 -2.5742923e-04
  1.2617967e-04
  5.5645377e-04
  2.2771914e-04
  4.5861561e-05
 -1.0463083e-05
  9.7754797e-05
  9.8406759e-05
 -3.3912014e-02
  2.4130474e-01
 -2.9204696e-01
  4.2068768e-02
 -1.1717438e+00
  1.0444397e-04
  1.0432515e-04
  1.2442324e-04
  6.6471359e-05
 -3.3668661e-04
  4.5626536e-02
  1.4300923e-05
 -4.2591515e-04
  1.4465991e-04
 -3.8133632e-05
  2.3161098e-01
  5.5212564e-05
  3.7548371e-02
 -4.0517986e-04
  1.2488318e-04
  7.7756137e-02
  8.5817694e-05
  1.0806581e-01
 -5.0763418e-05
 -2.7191595e-04
 -4.6322908e-05
  4.9521937e-04
 -2.9917214e-06
  1.0792772e-04
 -2.0430671e-05
  9.1586940e-02
 -2.3627537e-04
  9.0738766e-05
 -9.1670066e-05
 -2.9640831e-02
 -2.6195013e-04
 -7.7977484e-06
  1.2584610e-04
  3.3683125e-05
  9.2428927e-06
  2.9317915e-04
  3.8155881e-04
  9.9374264e-02
  3.8855744e-04
  1.0797210e-04
  1.8399276e-02
 -3.8120300e-03
 -3.9623144e-05
  1.3572966e-04
 -5.8335572e-05
  2.5400663e-05
 -9.4697258e-05
  2.0768400e-04
  1.0178132e-04
 -1.3024037e+00
  6.9754838e-05
 -1.1167604e-04
  5.8246751e-05
 -3.1604301e-05
  1.8686695e-04
 -1.9579040e+00
 -1.6624326e-02
  1.0957260e+00
  3.0278841e-01
 -1.4419827e+00
 -6.0903722e-01
  6.8686736e-01
  2.1796559e-01
 -1.2266667e-03
  1.8291759e-04
 -6.1565213e-02
 -7.8757709e-01
  7.8023464e-04
 -2.5243977e-01
 -7.1929544e-01
 -1.2925714e-01
 -6.5449481e-03
 -6.7390054e-01
  2.3477114e-04
  3.5566385e-04
 -5.9678527e-03
  3.7564652e-04
 -7.0353622e-06
 -2.8032273e-02
 -1.9323848e-05
 -9.3802714e-01
  2.8534932e-06
 -3.3039717e-06
  1.0409657e-04
 -4.9172751e-05
  5.0939660e-04
  4.7213159e-04
  5.0206480e-05
  7.1733825e-02
 -1.2471386e-04
 -4.0108172e-04
  8.0814334e-03
  5.9001195e-05
 -1.9176519e-05
 -5.9927719e-05
  5.0891878e-04
  6.5086606e-05
  4.5695336e-04
  1.4409082e-04
 -1.0956408e-04
 -2.3515957e-05
  2.3731586e-04
 -8.0508937e-05
  1.2336875e-04
  6.8935777e-05
  4.9367402e-04
 -1.3324609e-05
  2.9562041e-04
 -2.9103505e-05
  3.0571883e-04
  9.8770055e-05
 -8.5911073e-05
  1.0975287e-04
 -5.9838902e-05
  2.9634649e-04
  8.3298689e-01
  1.5129833e-03
  9.2858350e-01
 -3.2401782e-05
  3.1764778e-01
 -2.9854878e-04
  3.7269772e-04
  4.1291027e-05
  5.0753577e-05
  1.3258489e-03
 -6.6351956e-01
 -3.2447433e-04
 -3.9809480e-01
 -5.0230563e-04
 -1.9032464e-04
 -2.7838027e-01
  3.4931276e-02
 -1.3324323e-03
  7.0232061e-05
  7.3510199e-04
 -6.4138068e-05
  1.2849535e-02
  2.5877151e-05
  1.6288206e-05
 -1.8340988e-05
 -3.3684145e-04
  2.9778566e-06
  5.0975924e-04
 -3.5270682e-04
  2.5809964e-04
 -3.2038155e-01
 -3.3641461e-01
  3.0623347e-01
  1.0669074e+00
 -7.1105607e-02
  2.6379150e-01
  8.5718572e-01
  2.7383780e-01
 -5.8549222e-02
  1.5797497e-04
 -3.2040158e-01
  9.3386722e-01
  2.1262281e-01
  1.7252812e-04
  2.5121751e-01
 -9.7639978e-01
  5.6117254e-01
  6.1758030e-05
  1.0199120e-03
  3.0063694e-02
 -7.4513795e-05
  1.9675018e-01
  6.9551221e-05
  3.2848794e-02
  5.3459671e-03
 -4.1751462e-04
  3.1813420e-03
  1.2367212e-01
 -6.0632254e-04
 -8.5567401e-05
 -1.3041381e+00
  2.4552972e+00
 -1.8779048e+00
 -2.0507154e+00
  8.4288508e-02
 -7.9975057e-01
 -2.4760699e-01
 -1.8468733e-01
 -2.0943362e-02
 -2.3765419e-01
 -7.9975474e-01
  2.5675759e-02
  3.8696244e-01
  1.0264602e-01
  2.9906806e-01
  1.7847979e-01
 -1.0017948e+00
  1.2968963e-01
  7.8287542e-01
 -5.6389091e-04
 -3.2476248e-04
  6.8216957e-02
 -1.5384259e-02
  4.8470277e-01
  3.6982068e-01
 -4.3100053e-01
  3.1958255e-01
  1.5794276e-01
  4.9816070e-05
 -9.0345769e-05
  3.2993019e-01
 -3.2992238e-01
  5.9605551e-01
 -4.7294039e-01
 -1.7078795e-01
 -7.8130467e-04
 -5.0166398e-02
 -7.5749040e-04
  1.2248651e+00
  2.7308601e-03
 -3.6398780e-01
 -1.8184829e-01
 -2.4923921e-02
  1.5440140e-03
 -5.5588263e-01
  9.5321942e-04
  6.6245937e-01
  6.6229515e-02
 -3.2376280e-01
  9.7557747e-01
 -1.2085699e-02
  3.8607846e-04
  4.9619670e-03
 -1.7896653e-04
  1.6097543e-01
  1.2939902e-04
  1.5068682e-01
  8.7990202e-02
  8.5759506e-04
  3.8469289e-04
  6.5303683e-01
 -8.5209167e-01
  1.0984956e-01
  1.5898985e+00
  3.8985288e-01
 -2.1050443e-04
 -4.9929702e-01
 -8.0191588e-01
  3.4530608e-03
 -1.8521114e-01
  3.7362275e-01
 -2.7465379e-01
 -5.6749898e-01
  7.1226405e-03
 -1.0324255e+00
  4.0588129e-01
  4.6176139e-02
  1.8409349e-01
 -1.8257673e-01
  6.3490577e-04
 -9.3930446e-02
  7.3077696e-05
 -1.9040938e-04
 -2.8525946e-01
 -4.5765288e-02
 -4.0614435e-01
 -3.4109425e-02
 -1.8158598e-02
  1.3053321e-03
  2.1937957e-04
 -4.5449555e-02
  3.8011986e-01
 -8.9455473e-01
 -7.9906523e-01
 -1.6212674e-02
  6.8458819e-01
 -2.7974194e-01
 -1.5442376e-01
 -2.6421717e-01
 -8.0807704e-01
  5.0175691e-01
  4.8201226e-04
 -7.6324958e-01
 -8.0938065e-01
 -7.6512510e-01
 -4.0869790e-01
 -2.4945376e+00
  4.7274786e-01
 -9.1336817e-01
  1.2976423e-01
 -1.5792240e-01
 -2.3994841e-01
 -2.3476604e-01
 -2.2631334e-01
  9.2189267e-02
  1.3602254e-01
  1.1432751e-01
  7.4747539e-01
  6.0694246e-04
 -3.5276031e-04
  1.3026997e-04
  1.6302218e-04
 -1.4812632e-04
 -4.6959039e-04
 -4.1977488e-05
  1.5307992e-04
  4.4475152e-04
 -7.5418800e-05
 -9.9346181e-04
  3.0547212e-04
  6.4047985e-05
 -2.0625647e-04
  8.4400250e-05
 -2.2843305e-05
  3.2356326e-04
  1.7708394e-04
  5.7278230e-05
  2.6884023e-05
  5.3871201e-05
 -9.8838052e-04
 -5.9365677e-05
 -2.0242092e-04
  8.5372856e-05
 -2.0920961e-04
  3.0202415e-05
  4.5912000e-04
 -3.5487354e-04
  2.3773700e-04
  1.2509836e-04
 -3.0748564e-05
 -2.3984491e-04
  3.6924852e-05
 -2.5189831e-04
 -2.7353034e-04
 -1.5226389e-04
  9.8893561e-06
 -1.8249602e-04
 -1.4445132e-04
  2.9029759e-05
  4.0419298e-04
 -1.0926181e-04
  9.6062766e-05
  2.1516587e-05
  4.2458437e-04
 -2.2685451e-03
 -1.7280140e-04
  1.9801890e-04
  2.3644383e-04
  1.6008170e-04
 -3.3579365e-04
 -4.9641185e-05
 -6.9456146e-06
 -8.3798121e-05
  3.2718500e-04
 -3.5076948e-05
 -6.0508825e-04
  4.8693092e-04
  3.6477115e-05
  1.6370302e-04
  7.9187157e-05
 -5.9006160e-01
  3.9597732e-01
  1.8443637e-06
 -3.6669207e-05
 -3.6025296e-05
 -2.9916984e-01
 -4.1090469e-05
 -3.5781477e-02
  8.8277537e-01
 -1.1847834e-01
 -1.6072085e-01
  4.2645130e-01
 -3.7016693e-04
 -5.7756756e-02
  1.1414994e-05
 -5.7331324e-01
  2.1960859e+00
  5.8774211e-05
  5.0227684e-01
 -4.2782342e-03
  3.0589184e-01
 -8.9756868e-05
  1.2286893e-03
  9.9483985e-01
 -6.6889697e-01
  1.3603529e+00
  1.8972115e-01
 -1.0555961e+00
  3.3130687e-05
  6.3090801e-04
  4.4234687e-01
 -7.8025544e-01
 -3.8812146e-01
  2.3156549e-01
 -3.4765940e-02
 -5.5243653e-01
 -1.2866224e-01
  4.3238676e-01
  5.5518591e-01
 -4.2015067e-01
 -9.2169517e-01
  7.7963006e-01
 -3.4521818e-05
  3.9099425e-01
 -2.8577197e-01
  2.0922637e-01
  2.1485262e+00
 -1.3823669e-03
 -3.2425886e-01
 -1.0722864e-01
 -1.2486461e+00
  1.5199417e-04
  2.2525734e-01
  9.1059744e-01
  1.2416648e+00
 -1.0118139e+00
 -8.2986933e-01
 -1.0697887e+00
 -6.1152721e-05
  3.7290007e-02
  1.2830372e+00
  8.2788527e-02
 -2.5157738e-01
 -6.2794024e-01
  6.5647787e-01
  1.3082800e-02
 -4.4091856e-01
 -1.5212170e+00
  1.8419974e-01
 -2.4355975e-01
 -8.4770864e-01
 -1.5693118e-01
 -1.0431663e-04
 -6.6724771e-01
  3.7803712e-01
  1.3541535e-02
 -2.8157377e-01
  1.5635967e-04
 -5.2222216e-01
 -6.5489572e-01
  2.2415286e-01
  1.4550465e-01
 -8.1561434e-01
  2.2425638e-04
 -3.3683139e-01
 -5.0263691e-01
 -1.5524320e-01
  2.1441937e-04
 -1.8546563e-01
  9.7078347e-04
  6.4213622e-01
  9.6725333e-01
 -1.2149669e+00
  1.4489590e-01
  7.2182912e-01
 -4.8931473e-01
 -6.2997214e-02
 -7.7184814e-01
  4.4828165e-02
  5.3778893e-01
 -5.1727521e-01
 -4.3976033e-01
 -3.8896006e-04
 -8.7356366e-02
 -3.5952875e-01
  4.9088928e-01
  1.6788051e-01
  3.6585945e-01
 -9.3972826e-01
 -1.8659420e-01
  3.2784286e-01
  1.9420823e-01
  1.8789361e-01
 -6.2933730e-05
 -3.6427072e-01
 -3.2221267e-01
 -2.5510257e-01
  7.2566603e-05
 -6.8047696e-01
  9.2422981e-03
  3.0753607e-01
  6.5496989e-04
  7.0027113e-02
  1.1780434e-02
 -6.4826077e-01
  8.9399422e-05
  2.9022298e-05
 -1.3263465e-01
 -1.0271242e+00
 -2.2353532e-03
 -1.0800308e-03
 -2.9696530e-01
  6.0790053e-06
 -5.4329645e-02
  5.1784966e-05
  7.2604314e-05
  4.3370139e-02
 -8.4371895e-05
 -1.9924568e-01
  4.8233556e-05
  6.5508665e-04
 -2.8940119e-04
 -1.1843818e-04
  4.0713629e-05
 -8.6331907e-05
 -6.0853181e-05
  5.9595946e-05
  1.5623355e-04
 -2.4694780e-02
  1.1882037e-04
  1.5565826e-04
 -1.0633056e-04
 -1.0082348e-04
 -8.6838442e-01
 -1.6586887e-04
  1.9107097e-04
 -2.5306665e-04
 -1.4705555e-06
  8.4587264e-05
  1.1584030e-04
 -4.0455064e-04
 -1.1522706e-05
  1.3695080e-04
 -1.1663193e-04
 -1.4375840e-04
 -1.0429291e-04
  5.7602996e-05
 -1.3911863e-01
 -2.3347403e-04
  1.0542873e-04
 -9.0470472e-05
  2.2739514e-04
  6.4780157e-05
  3.1028147e-05
  2.0177102e-05
  6.9348207e-05
 -3.1820691e-05
  4.7048839e-04
  7.2978495e-05
 -7.1877002e-06
  6.5282489e-05
 -3.6332629e-05
 -1.3647490e-05
  8.3078427e-05
 -4.6287365e-05
  1.6394096e-04
  3.3848439e-06
 -3.5346093e-06
 -7.9344347e-05
  2.8217069e-04
 -2.2617089e-04
 -5.4462231e-05
 -9.2217226e-05
 -1.3746997e-05
  1.1496894e-03
  2.2256579e-06
 -1.9223929e-05
 -2.7436035e-04
 -1.2345695e-04
  7.4727650e-05
 -7.7696131e-06
  5.5913140e-05
 -2.9264751e-05
  3.6371432e-05
 -1.0062209e-04
  8.5138701e-05
  1.3218790e-04
  3.0071213e-04
  1.1644918e-04
 -1.2685783e-04
  2.3750305e+00
  2.1894989e+00
  5.3771561e-01
 -1.2441661e+00
  8.9956492e-01
 -5.9289549e-02
 -1.9401176e-02
  2.8218839e-01
 -1.9872556e-02
 -1.2290243e-04
 -8.6532831e-02
 -8.6376435e-01
  1.7853935e-01
  3.1743374e-01
 -3.0756357e-01
  9.0407580e-04
 -2.6965466e-01
  1.1482054e+00
 -5.2045047e-04
 -1.8164439e+00
 -1.4632356e-01
  3.6812147e-01
  1.5196560e-01
 -2.0065092e-04
 -4.9206546e-01
 -7.0241140e-04
 -1.9183669e-04
  4.3569427e-05
 -6.2693137e-04
 -1.5578182e-05
 -6.9323112e-04
 -8.0140082e-05
 -6.1239593e-06
 -1.0716206e-03
  1.5408352e-04
 -2.8969956e-05
  1.4369361e-04
 -4.0917868e-05
  1.1645663e-05
  9.6312986e-05
  1.0163316e-04
 -1.5275240e-04
 -4.6160807e-05
 -1.8229183e-04
 -4.1749714e-05
 -1.6519699e-04
 -4.5873716e-05
 -1.2173321e-04
  2.2304777e-05
 -5.8704725e-04
  8.5848609e-05
  2.1409429e-05
  1.7161740e-04
  1.7821386e-06
 -4.7838053e-05
 -3.6018602e-05
 -1.9632520e-04
 -9.1974798e-05
  1.0904011e-04
 -2.5623292e-05
  7.5084889e-01
  9.0242065e-02
 -1.1478355e+00
 -3.7545699e-01
  6.6197836e-01
 -1.0812863e+00
 -7.4593455e-01
 -3.9752945e-01
  1.1350728e-01
 -2.1957071e-02
 -3.2318062e-01
 -4.5607722e-04
 -2.4342026e-01
  2.2427643e-05
  6.7217100e-01
  3.6108067e-05
 -2.4725961e-02
  6.7710258e-05
  1.9801572e-04
 -6.7886263e-01
 -8.4600524e-06
  6.9808507e-01
  2.7982533e-01
  5.8512896e-04
  2.4860747e-02
 -4.6501509e-04
 -7.1069738e-04
  2.3458926e-04
 -3.9902166e-02
  5.0458062e-04
 -1.6517425e+00
 -1.2527257e-01
  2.0232977e-02
  1.7482679e+00
  3.1405619e-01
 -1.3059628e-01
 -1.2309726e-04
 -8.4772131e-05
  3.2535054e-02
  3.5877302e-04
  2.9559547e-04
  2.0146930e-04
 -2.0321202e-05
 -1.8966655e-04
  3.4274057e-01
  1.6526673e-04
  4.3806201e-01
  5.7847639e-05
  1.5578786e-04
  3.0900669e-04
 -2.4851543e-04
 -9.8380096e-02
 -1.2662551e-01
 -5.5961853e-05
  6.5640355e-03
 -2.0791167e-05
 -7.0022438e-06
 -1.5208225e-05
  1.8993829e-04
 -4.7034727e-04
  3.5406053e-01
  1.3029127e-01
 -6.7363268e-01
 -4.8038989e-02
  1.1833276e-01
  8.9240074e-02
 -4.2000314e-04
 -5.4933339e-01
 -7.9962454e-05
 -3.3509169e-02
 -2.5439090e-01
  2.3096124e-02
 -7.7089213e-04
 -4.1800675e-01
 -1.7714158e-01
  3.6370151e-02
 -2.7363624e-03
 -3.8006115e-01
 -3.0501521e-01
  5.7981888e-06
  1.4452778e-01
  2.7694175e-01
  9.8101419e-01
 -2.4898825e-04
 -6.9849022e-02
 -9.1370635e-02
 -6.6165909e-02
 -4.1031724e-04
 -1.0511963e-01
  2.7508521e-04
  2.4497055e-04
 -1.0649882e-04
  1.9912241e-04
 -7.2412634e-01
  9.8099019e-07
 -5.4884300e-04
 -3.0440482e-05
  6.4157910e-05
  4.0610664e-04
 -1.5951203e-04
 -4.2760622e-04
 -9.6059899e-05
 -1.8221897e-04
 -3.1688585e-04
 -2.2836513e-05
 -5.8028058e-05
  1.0714310e-04
  5.2322554e-05
  1.1958539e-04
 -1.4475219e-04
  1.6675475e-06
  2.0126435e-04
 -5.1829276e-05
 -3.7267903e-04
 -1.4536818e-04
 -3.7034063e-04
  1.7409111e-04
  1.2416365e-04
 -2.1432810e-04
  5.1177591e-05
 -5.5895555e-01
  1.2788561e-01
 -1.3052733e-01
 -8.3690390e-02
  9.9211389e-01
 -9.3578761e-05
 -2.3741888e-04
 -1.4230129e-02
  2.1627939e-03
 -9.5027890e-06
  3.3414798e-04
  1.2750888e-05
  1.0281535e-04
 -4.3427201e-05
 -2.6687235e-07
  6.8370748e-05
  8.5406303e-01
 -3.8151495e-05
 -1.6920251e-04
 -1.1492039e-04
 -1.0188988e-04
  2.2406175e-04
  3.8707345e-05
  1.7712718e-04
 -7.5617172e-05
 -6.8367939e-05
  4.7094090e-05
 -1.5795538e-04
 -3.5047309e-05
 -9.0526621e-05
 -1.1594518e-01
  3.6247477e-01
  1.4538229e-03
  3.9602748e-01
  3.9159918e-01
 -2.2807666e-04
  1.3442537e-05
 -2.8803080e-04
  6.5957443e-05
 -4.8683334e-05
  5.6014338e-04
  5.1282805e-05
 -2.2444777e-04
  2.6964059e-04
  2.7073317e-04
  3.3718119e-05
 -4.4560930e-04
 -1.9361977e-04
 -8.1949423e-05
  1.6276457e-05
 -1.5631142e-04
 -1.5661845e-04
 -9.3950955e-03
  3.6389960e-04
  2.2214770e-02
 -4.1166048e-05
  2.5846736e-04
  7.9666806e-06
  3.8550899e-04
 -9.3994480e-05
 -1.0019318e-01
  1.0347004e-05
  1.4775227e-04
  2.8011328e-01
  6.1847522e-06
 -1.2949436e-05
  3.5317731e-04
 -2.8127665e-04
  1.0984488e-06
  8.8377390e-05
 -3.6745998e-05
  5.8925023e-05
  2.4558889e-04
  2.7841874e-04
  3.1250627e-05
 -8.7869281e-05
 -1.1096571e-03
 -1.1711413e-04
 -4.0333362e-05
  2.7514543e-04
  8.8399966e-06
  6.5735425e-05
 -3.6897227e-06
  8.7528832e-05
 -3.8749400e-05
 -1.5368469e-05
 -4.8140584e-05
 -1.2764557e-04
  9.9233766e-06
 -5.2578577e-07
 -5.0826340e-05
  2.9989087e-04
 -1.6646220e-04
 -3.9469242e-01
 -5.1138704e-05
  6.2069295e-05
 -8.3813811e-06
 -4.9401722e-05
 -4.4935561e-05
 -2.0716440e-04
  1.1515780e-04
 -6.7469038e-05
  3.6055928e-05
 -2.8588134e-04
  7.0180839e-05
 -7.4214098e-05
 -3.6196227e-04
 -1.0770446e-05
 -4.9277092e-04
 -1.1044701e-04
  6.8026849e-05
  1.1470297e-04
  1.0382188e-04
  3.1810057e-05
 -8.7544839e-05
 -2.2846826e-04
  1.0528156e-04
  1.4626182e-04
 -2.4977376e-04
  3.4509017e-04
  5.5634809e-01
 -8.1272949e-05
 -4.3019209e-05
  3.4972012e-01
 -2.2461421e-05
  9.0541653e-05
  1.1288547e-04
 -4.5705492e-05
  2.0766958e-05
  1.0072564e-04
  2.7889357e-05
  3.6489035e-04
  2.2083895e-04
  3.1389111e-05
 -2.1377999e-05
  1.0156928e-04
 -7.0648573e-05
  1.5952755e-04
  9.4564766e-06
  1.3333212e-03
 -2.4731135e-05
 -2.3927869e-05
 -1.6590004e-04
  1.4339462e-04
 -8.7541252e-05
 -3.4463406e-05
  1.0290149e-04
  2.1780754e-05
 -4.3945733e-04
  6.0324972e-05
 -5.0130796e-01
  7.3506861e-05
  2.4130441e-02
 -5.4906952e-01
  3.4547142e-05
 -2.3165038e-04
  1.6331597e-04
 -1.2118823e-04
  4.6189126e-04
 -1.8259522e-04
 -4.0962768e-04
 -3.2097092e-04
 -5.3744661e-05
 -6.8184898e-05
 -5.8697689e-05
  1.0903844e-03
 -6.1175728e-05
 -8.2287399e-05
  9.9345874e-05
 -3.2199491e-04
  3.4957394e-04
 -8.1847604e-05
 -2.4313761e-04
  2.1701706e-04
  2.3657951e-04
 -4.8882015e-05
 -3.9973744e-04
  2.2766376e-03
 -1.6426857e-04
 -5.9090002e-05
  5.1240802e-01
  8.7553367e-04
  4.7051758e-03
 -9.0498680e-01
  3.0655769e-01
  1.6727082e-04
  1.2560542e-04
  8.0583210e-05
  7.9579331e-04
 -2.3424394e-04
  2.7020622e-04
 -3.4940163e-05
 -1.5502928e-04
  1.6199988e-04
 -1.3548565e-03
  1.0987275e-04
 -1.6202102e-04
 -1.7957482e-04
 -1.2893575e-04
  6.2659019e-06
  7.5063857e-05
 -2.4721128e-04
 -3.6227149e-05
  1.5495818e+00
  5.0483795e-04
  1.2885426e-04
  5.2070209e-05
 -3.0786314e-06
  9.1657341e-05
 -3.2762131e-05
 -1.2958346e-01
 -4.7964745e-06
 -2.3471719e-01
 -5.5684026e-02
 -4.1294497e-01
 -6.7305773e-01
  6.9329668e-05
 -2.1673822e-04
 -5.3768454e-05
 -2.1926282e-04
 -1.0744227e-04
  5.0474893e-05
 -5.8720711e-05
 -4.9784279e-04
  6.1448030e-05
  2.2606568e-05
  2.9069334e-04
  5.3291151e-05
  2.9344927e-05
 -1.6022981e-05
  2.1450178e-05
 -3.0271325e-04
 -7.3855175e-05
 -2.3099004e-04
 -1.0154703e-04
  1.0384189e-04
 -4.6768619e-05
  5.3648319e-04
  1.3738621e-06
  6.3113082e-05
 -4.7404929e-03
 -5.0641454e-05
  1.0131052e-04
  2.1674491e-01
  1.6708531e-05
 -8.4527659e-05
  2.8469416e-04
  4.7922524e-04
  1.6487849e-06
 -3.9772465e-05
 -4.9377390e-04
  1.4912458e-04
 -7.5977274e-05
  6.8444142e-04
 -1.7920988e-04
  1.7843788e-04
  1.3494826e-05
  2.5995516e-05
  1.0339139e-04
 -1.0794119e-04
  6.0555725e-05
  5.8436176e-06
  1.4474386e-04
  9.3300965e-05
 -6.9910678e-04
 -1.6115510e-04
 -8.0899816e-05
  6.8794630e-05
 -3.6997587e-04
  5.9110120e-05
 -5.7331070e-02
 -2.9302018e-03
  6.9447851e-01
  7.3675555e-01
  2.8440416e-01
  1.1186758e-01
  3.7717327e-01
  1.9399662e-04
 -7.3885196e-01
 -7.8008729e-03
 -2.2510473e-04
 -3.2296091e-01
  6.8430952e-04
 -2.3982902e-01
 -5.1137006e-01
  6.9770124e-04
  7.8840530e-04
  1.8040261e-04
 -1.6839725e-01
  5.2276091e-04
 -6.5454189e-04
 -4.3664910e-04
 -1.6212888e-03
 -1.3652110e-03
 -4.6039683e-01
  1.2913030e-05
 -1.7615142e-03
 -1.3540193e-04
 -4.1215649e-04
  3.6300253e-04
 -5.9560281e-01
 -1.6261904e-04
  9.4299912e-01
  4.8262659e-01
 -1.4037783e-01
 -2.0572128e-05
  2.0997935e-05
  2.5497752e-01
  4.6428862e-01
  1.2659003e-03
  6.2335416e-04
  2.9176253e-01
  6.4675091e-03
  1.5423602e+00
 -8.7368488e-02
  1.7061686e-04
 -2.9496079e-02
 -7.9820288e-04
  1.1217927e-01
 -8.7800880e-05
 -4.1934836e-05
  7.8565412e-05
  1.9863725e-03
  3.2684442e-05
  2.7257871e-04
 -1.3158487e-05
 -1.1256924e-03
  2.3982298e-05
  4.1731241e-01
 -5.8828173e-05
 -2.6579100e-01
  7.4175078e-01
 -7.3585600e-01
  1.1834564e-03
 -1.2793216e+00
  1.3667518e-04
  1.3125247e-01
  1.5776223e-03
 -6.1391305e-02
 -1.0364508e-02
  1.9985733e-03
  1.6579308e-04
  1.0114746e-01
 -5.5462513e-02
 -4.5793906e-02
  3.1107228e-04
 -1.4884366e-01
  3.4119509e-04
 -2.1742913e-03
 -3.7262632e-07
 -5.8791123e-02
  1.8236876e-01
  1.6459551e-01
 -9.3387364e-04
  9.7008562e-03
 -7.8461533e-05
 -1.1518430e-05
 -3.2711880e-05
 -6.1165571e-05
  2.2419819e-04
 -1.0956324e+00
 -8.0555815e-01
  3.0323088e-02
  9.3916345e-01
  1.4874099e-01
  1.3226956e-02
  9.1765891e-05
 -5.3797317e-01
 -7.4896109e-01
 -1.4111515e+00
 -1.9170654e-01
 -3.0977863e-01
 -5.0107570e-04
  5.1136667e-01
 -2.7121830e-01
  1.5123224e-02
 -2.0587052e-01
  2.3370525e-01
 -3.3701345e-01
 -1.9161713e-04
  1.8740457e-02
  2.7041823e-02
  2.3080792e-01
 -2.5512127e-04
 -4.9254084e-01
 -6.7770138e-04
 -6.8722939e-04
 -1.5978669e-05
 -3.4445491e-02
  3.1191923e-04
  1.4612170e-04
 -8.4266307e-05
 -2.8819355e-05
 -5.0422197e-05
 -6.3769521e-06
  4.8558827e-04
 -1.8416268e-04
 -2.7180399e-04
 -2.4489235e-04
 -2.1617352e-04
 -3.2357999e-05
  6.2928826e-05
  2.7072119e-05
 -2.1776941e-05
 -1.6415930e-04
 -2.7682585e-05
  5.1994877e-05
 -5.0609771e-07
 -8.4094660e-05
  2.4932993e-04
 -1.5111390e-04
 -1.5317697e-04
 -1.1257187e-04
 -6.1211569e-05
 -1.9397622e-04
  2.9219376e-04
  3.2416006e-04
 -1.0897384e-04
 -2.0004333e-04
  9.9926256e-05
  3.8577322e-02
 -2.4845780e-04
 -3.9248962e-02
  7.2551709e-01
  7.4240239e-03
  1.8450071e-04
  6.5656466e-05
 -4.7277886e-01
  1.0545484e-04
  8.6081585e-05
 -5.1575524e-05
 -3.1548526e-04
 -2.6050897e-04
  1.4986139e-04
  3.0476727e-05
 -5.2706237e-06
  9.5181000e-05
  8.6668617e-05
  1.9469247e-04
 -1.6786607e-05
 -6.5673817e-06
  9.6532938e-05
  3.7616820e-04
 -7.5287498e-05
  2.1780039e-04
 -1.4737653e-04
  4.8908131e-04
  1.9516936e-04
  3.7085196e-05
  4.5284432e-05
  7.4326235e-01
 -5.8619883e-03
  2.4529888e-01
 -6.2954116e-01
 -6.0767587e-02
  1.5492380e-03
  2.2485823e-05
  2.3254705e-05
 -3.1378694e-04
 -3.1296458e-05
 -1.0749904e-04
  7.1868519e-05
  9.9619654e-05
 -1.8650648e-04
 -1.2431273e-04
  7.6582357e-05
  1.1373087e-04
 -2.3155485e-04
  1.9314244e-05
 -3.7570120e-05
  5.7718604e-05
  2.3730373e-04
 -6.3603955e-05
  1.4831594e-04
 -3.0600579e-04
  1.2094218e-05
 -3.2360370e-03
  9.8979668e-05
  2.3762762e-04
 -1.0485805e-04
  4.3071148e-01
 -1.8983949e-03
 -2.0330168e-02
  4.1399726e-01
 -2.3861073e-01
  3.5808180e-04
 -2.6447579e-04
  1.1469943e-04
 -9.3471067e-04
  8.4464446e-05
 -6.3423089e-05
  2.9969390e-04
  1.7197346e-04
 -1.0228272e-04
 -2.2652178e+00
 -2.7911409e-04
 -8.2829953e-05
  2.1683217e-04
  8.2414990e-05
 -2.9137303e-04
  3.0759496e-05
  2.9987621e-04
  1.1355872e-03
 -3.8276389e-04
  3.4838481e-04
 -4.9374520e-04
  7.3404633e-04
 -2.9956069e-05
 -1.1108630e-05
  2.4700752e-05
  2.2759454e+00
  5.7005531e-01
  2.0995644e-01
 -2.5379360e-01
  8.5513425e-01
 -8.8410512e-02
  1.8241162e-04
  1.1059688e-04
  6.5533270e-05
 -8.5160154e-04
  4.8141947e-04
 -6.5870814e-02
  3.0920011e-05
  7.0707691e-05
 -4.4273595e-05
 -2.9377788e-04
  7.4108377e-02
  9.5945514e-05
  2.4707071e-04
 -2.9281548e-05
 -5.4114223e-03
  2.9065230e-01
 -1.7266320e-05
  6.0472950e-05
 -6.5033055e-05
  4.5976337e-04
 -4.0576568e-05
  1.1032469e-05
  8.3343577e-05
 -5.4101671e-05
 -2.2717083e-02
 -2.4467264e-04
  3.9179500e-02
  5.3301162e-01
  2.1214304e-03
  8.4578787e-05
 -3.1099108e-04
  3.8027400e-05
 -1.0283412e-05
 -3.5380531e-04
 -7.7545876e-05
 -2.0751011e-05
 -3.3010807e-04
  2.7433543e-05
 -1.8620120e-04
  4.8154799e-04
  8.9388805e-06
  5.4627031e-05
 -5.8224223e-06
 -2.2306398e-05
 -1.2901537e-05
 -1.9663536e-04
  1.8467907e-05
  1.8576138e-04
  4.4307970e-05
  1.8799816e-05
  1.4279246e-04
 -3.1880078e-05
  1.0370756e-04
  2.9685666e-04
 -1.4748725e-02
  1.5845319e+00
 -5.1752359e-01
 -1.1613294e-04
  3.6925913e-04
 -2.1289227e+00
  3.7651122e-04
  9.4096571e-02
  8.7899846e-01
  1.1811903e+00
 -1.4701672e-05
  2.5488377e-01
 -5.1710677e-01
 -3.5648400e-01
  3.6652735e-05
 -7.2303410e-03
  1.8117785e-02
 -8.8420830e-04
 -1.1658516e+00
  1.7929992e-03
 -4.1392718e-02
  1.7225552e+00
  2.6024065e+00
  5.5113590e-01
  1.1025147e-04
  6.0705140e-02
  3.8780147e-01
 -9.7811915e-02
  1.2659597e+00
 -1.6435701e-03
 -8.4581536e-01
 -9.3242258e-01
 -9.1840714e-01
 -1.0499307e+00
 -1.9198473e-04
 -1.4945859e+00
 -4.8915926e-02
 -7.2140098e-01
  2.7789861e-01
 -7.1083897e-01
 -5.5306238e-01
 -1.2142333e+00
  3.9370546e-01
 -3.3760488e-01
 -7.0931949e-02
  9.0847528e-01
 -2.3887949e+00
  7.4030823e-01
 -4.1694856e-01
 -9.4421439e-02
 -7.0837879e-01
  1.8986974e+00
 -1.7700129e+00
 -5.3102177e-01
  1.3362537e-05
  1.0700247e+00
 -2.6252785e-01
  1.1392317e+00
 -4.4224730e-01
  3.1539357e-01
  5.2785873e-02
  5.0800288e-01
 -4.2346612e-01
 -1.1811057e-01
  9.3133986e-01
  6.4111918e-02
  2.4599163e-02
  1.7785180e-01
  1.2984454e-04
  8.6276763e-05
 -3.0712946e-04
  1.6442101e-04
  1.9350125e-03
  1.0736519e-04
  2.8807585e-04
  1.1280038e-03
  2.8258847e-04
  2.7538368e-03
  1.5681665e-04
  2.9280543e-04
  3.9848022e-04
 -2.6619137e-04
 -1.0075078e-05
  3.9593764e-03
 -1.4683160e-04
 -1.9055791e-05
 -1.6891015e-04
  1.9174468e-04
 -3.7129630e-05
 -1.8659428e-04
  3.5100788e-02
 -4.4863018e-01
  3.4958357e-01
 -2.2139172e-01
  2.1571034e-01
 -4.1551059e-03
 -1.1194566e-01
 -3.0088994e-01
 -6.8545560e-05
 -2.0564545e-03
 -1.3555269e-04
 -1.4140774e-04
 -1.5336642e-01
  2.3164769e-04
 -1.2218313e-04
 -1.3325266e-02
  2.1925768e-04
 -1.6435532e-01
 -1.8798615e-05
  3.2499948e-04
 -2.1586087e-04
  1.9775474e-04
 -1.1207148e-05
 -5.1724393e-02
  8.8100060e-05
  8.0984246e-05
  1.6504033e-04
 -3.5412741e-04
  3.9658047e-05
  2.0357780e-05
 -4.8658520e-05
 -2.0233069e-04
 -7.5639176e-01
 -2.3380278e-03
 -9.6309918e-01
  3.4304475e-04
  9.4294213e-05
  1.4248174e+00
 -1.7159995e-04
 -5.5650307e-04
 -4.9898190e-05
 -1.2928703e-04
  1.9463108e+00
  9.7897893e-04
  7.2841838e-05
 -7.7317731e-05
 -2.0124386e-05
  1.3442659e+00
  9.5820392e-04
  8.5908840e-05
  5.8400263e-05
 -2.7949360e-04
  1.1719204e-01
 -1.7429402e-04
  3.3197257e-06
 -6.0378326e-05
 -1.5967235e-04
  9.8854452e-01
 -3.2012994e-04
  1.7033303e-04
 -6.9897802e-04
 -1.4299527e-01
 -2.8528327e-01
  1.4693277e-05
 -9.0705889e-01
  2.5686277e-05
  9.6161624e-05
  1.2222434e-04
  5.8088244e-05
 -3.9033880e-04
  1.1123481e-04
  4.7999085e-05
  8.5366464e-06
  1.6975155e-04
  1.1670862e-04
  1.4841989e-04
  2.3789493e-04
  9.1438502e-05
 -9.9458150e-05
  6.5388362e-05
  4.6769789e-04
 -1.0514216e-04
 -2.8478627e-05
  3.6167374e-05
 -1.7996335e-05
  3.4525007e-04
 -2.5854571e-04
 -3.0680723e-04
 -2.4071355e-04
 -1.9945489e-04
 -3.0997235e-04
  4.7307400e-04
  2.4600504e-01
  2.2738781e-04
  8.5283917e-01
  4.4344011e-04
 -7.3311014e-05
 -1.9636822e-01
  2.8315620e-04
  1.2672938e-04
 -6.2665192e-04
 -1.3064539e-04
 -1.2307322e-04
  6.9764990e-04
  1.9054374e-05
 -4.7160036e-05
  4.5038827e-04
  2.8323437e-04
 -3.0626732e-04
  1.4162657e-05
 -2.7594919e-04
  1.3795501e-04
 -5.0611758e-05
 -1.6915725e-05
  2.7699632e-04
 -2.7849781e-04
  3.2373102e-04
  1.2521714e-04
  2.6273370e-05
 -1.1596924e-04
  6.4035144e-04
 -2.6366224e-03
 -1.7235316e-02
 -3.2320062e-05
 -7.8449899e-01
  6.4631640e-05
 -1.2598238e-04
  4.8480222e-05
  2.4134484e-04
  2.2054219e-04
 -7.7318240e-05
 -3.2554881e-04
 -2.0526521e-04
 -1.3148482e-04
 -5.8225234e-04
  8.1314880e-05
  8.4363135e-05
 -1.2672570e-04
 -1.1611293e-04
  1.1375445e-04
  1.2060911e-04
 -4.1215266e-05
  6.8238114e-05
 -1.5663703e-04
 -2.3579001e-04
 -2.9328374e-05
  5.1375933e-05
  4.9339947e-06
  7.7538461e-06
  1.1420409e-05
 -2.0172643e-04
 -9.5456474e-02
 -4.0919203e-01
 -8.6566215e-06
 -5.6408101e-01
 -6.7531164e-03
  2.6288841e-04
  3.2563660e-06
 -3.9195182e-04
 -2.2528163e-04
 -2.5358942e-04
  1.1088817e-05
  4.2833842e-04
 -6.7702225e-05
  6.2277119e-05
 -6.8094734e-05
  6.3797116e-04
  8.3437757e-05
 -1.2990210e-03
  1.0202324e-03
 -3.8803419e-06
 -1.0050130e-04
 -5.5053225e-04
 -4.0183202e-04
 -1.2668539e-04
 -8.7483451e-05
 -1.1020133e-04
 -2.1386158e-03
 -3.4492623e-04
 -6.7853405e-05
  2.7459987e-02
 -2.7623975e-01
 -4.0970813e-03
 -2.6971611e-01
 -1.0318776e-01
 -2.3787285e-04
 -4.8651252e-04
 -3.2008308e-01
 -3.3151801e-04
  9.5256530e-03
 -1.0126140e-04
  9.5573399e-05
 -3.4723539e-02
 -1.1923491e-04
 -1.5002573e-03
 -8.0861873e-04
  1.9697475e-04
 -4.8320834e-02
 -2.0262986e-01
  2.5936429e-04
  3.7010005e-04
 -3.5823763e-03
 -5.2440568e-04
 -3.2345999e-02
  2.6694604e-05
 -1.2128331e-04
 -1.6186801e-05
 -2.9335173e-03
 -2.6954227e-05
 -6.0061743e-06
 -6.4470792e-01
 -3.4877709e-01
  3.5495490e-01
  7.3236860e-02
  9.9422745e-02
 -1.1573483e-01
 -5.4844600e-01
 -2.1364760e-01
 -2.8622695e-04
 -1.3961498e+00
  1.9036703e-04
 -1.2114613e-05
 -1.1377158e-01
  6.7451465e-06
 -6.4610280e-02
 -5.7132477e-01
  1.3922562e-04
 -5.0133765e-02
 -1.3073673e+00
 -1.0125979e-04
 -7.1680127e-04
  8.3574742e-01
 -1.0328534e-01
 -7.4715421e-02
  1.5481595e-04
 -4.8538994e-05
  8.7534114e-05
 -2.8398322e-04
 -3.5606192e-06
 -4.6277146e-05
 -1.0990309e-04
 -6.1407065e-01
 -4.9132943e-01
 -4.9364040e-05
 -3.3685324e-01
 -5.6205026e-05
 -1.1157618e-03
  8.1665603e-05
 -1.2214802e-04
 -6.3036557e-04
 -9.4240357e-05
  5.9112986e-05
 -4.2020611e-02
 -2.6988308e-04
 -2.8587314e-01
 -9.0849760e-04
  1.8509207e-04
 -2.3983612e-04
  7.0062815e-05
 -2.4295182e-04
  1.0753688e-04
  2.3841863e-05
 -4.0857270e-04
 -6.0559920e-04
  6.8374234e-04
 -2.7841446e-04
 -5.4486231e-05
 -3.0444466e-04
 -3.9999632e-05
 -7.7489902e-05
  2.8404796e+00
 -1.8247111e+00
 -3.1192166e-01
 -2.2119977e+00
 -1.9495983e-01
 -3.1336874e-01
  4.9459533e-04
 -1.3220817e-01
  8.8789258e-03
  2.3635706e-01
  1.2446147e-04
 -8.9037931e-04
 -5.4627523e-04
  5.1991764e-02
 -3.8699778e-05
 -4.0182110e-04
 -1.3521594e+00
 -3.7581873e-01
 -3.7325212e-01
 -9.8294104e-06
  2.9311478e-01
 -5.1826310e-01
  5.6119450e-05
 -6.2904072e-01
 -1.0638403e-03
  2.6859652e-04
 -2.1108970e-05
  2.1390271e-04
 -7.3129660e-04
  2.4580370e-06
  5.6203163e-01
 -5.3827487e-02
 -3.2868376e-01
 -1.2288464e+00
  3.5660356e-01
  3.9612913e-01
  1.3687648e+00
 -2.9866481e-02
 -7.3834941e-02
  2.4382833e-02
  1.0659806e+00
  3.2901502e-04
 -3.7477300e-01
  1.9827101e-03
  6.2215334e-01
  1.2481964e+00
 -4.0437713e-01
  1.1570920e+00
 -3.0231205e-01
  5.4301190e-01
  1.7308316e+00
 -4.4181466e-01
  5.1856840e-01
  7.5954553e-03
 -3.9364183e-03
 -6.3624084e-02
  6.9137408e-05
  3.2438299e-01
  4.0372318e-01
 -3.9656274e-04
 -6.8185884e-03
 -8.1683159e-02
  1.9370280e-01
  8.3732251e-05
 -3.4152570e-01
 -9.2672646e-02
 -3.5795668e-04
 -1.3546392e-02
 -2.3539543e-04
  1.4141175e-05
  6.3255068e-04
 -1.4009151e-03
  1.8424371e-05
  1.5121512e-05
 -2.1262360e-05
 -7.4079679e-04
  1.6076558e-05
 -3.7314373e-04
 -4.1102943e-05
 -1.5620351e-05
 -7.4368231e-03
  3.1964108e-04
 -5.0006295e-04
 -1.8735732e-03
  1.2619021e-04
  5.6136771e-05
  6.8548025e-04
  8.5740336e-05
  1.8260639e-06
  2.1571002e-03
  6.3515701e-03
  1.4291501e-01
 -1.0868694e-01
  1.7114654e-01
  1.8400900e-01
 -3.8537964e-01
 -1.2987034e-01
 -7.6932073e-02
 -4.8247311e-02
  5.8825895e-02
  1.7414445e+00
  9.2682440e-04
  1.4994706e-01
 -1.7388135e-01
 -7.9691768e-01
 -7.2846234e-01
 -8.9699492e-02
 -6.9546884e-01
 -7.0218009e-01
  6.3225502e-01
 -7.2328048e-03
  3.2434615e-01
 -1.4350791e-01
 -3.6967751e-01
  2.3650835e-04
  1.7953922e-01
  1.5746387e-04
  7.7916833e-05
 -2.2318143e-01
 -3.6916407e-04
 -2.9257277e-05
 -1.5928311e-03
 -6.5677035e-01
  2.1365729e-05
 -6.1122787e-01
 -2.3732476e-04
 -1.2293080e-04
 -1.9928771e-04
  2.5048310e-05
 -1.6815236e-04
 -6.4541171e-05
  9.6803837e-05
 -7.9101714e-04
  3.4703483e-04
  4.5019100e-05
  8.7004861e-05
 -1.0510789e-05
 -1.6313224e-04
  8.4900239e-05
 -2.3369787e-04
 -1.7468083e-05
 -7.3948104e-05
  2.5136996e-04
  7.5545704e-06
 -1.3802710e-04
 -1.6978709e-04
  5.8158068e-04
  1.8096254e-04
 -1.2647710e-04
  1.7718192e-04
  2.5365749e-04
 -5.6576040e-02
 -4.9213669e-01
 -9.3654526e-06
 -4.5140266e-01
  5.0177885e-05
 -6.7533176e-05
 -3.4668912e-05
 -8.1386301e-05
 -2.3928123e-04
  2.5915922e-04
  7.4077521e-05
 -8.1921771e-06
 -9.4732040e-06
  8.7740715e-05
  5.2686908e-05
  1.0101179e-04
  1.4418049e-04
  3.5143050e-05
  4.7716129e-04
  8.8504697e-05
  2.0427960e-05
  4.2913666e-06
 -2.0168985e-04
  4.3633390e-05
 -1.0892142e-04
  1.5301585e-04
 -4.9589056e-04
  3.0779364e-04
 -3.5111871e-04
  1.6122930e-01
  1.7945877e-01
 -3.8905211e-02
  4.4469835e-04
 -7.9906777e-02
  2.1323706e-03
  8.6763519e-04
  4.7657776e-01
  3.7420366e-05
  8.0995139e-04
  1.8770796e-04
 -1.8015991e-05
  3.3483151e-01
  1.4945772e-04
  5.2465199e-05
  1.3284729e-02
  9.0296024e-05
  1.5918836e-01
  2.4986632e-02
  1.8334400e-04
  5.6515459e-04
 -3.0875417e-05
 -1.3364801e-04
  1.9180943e-03
 -6.2093482e-04
 -1.7725556e-04
 -3.1975560e-05
  2.1156940e-01
 -9.6935219e-05
  1.0012749e-04
  1.6948357e-02
  2.3035645e-01
 -1.8736090e-01
 -2.3242745e-01
  4.9391825e-02
  8.6233698e-02
  9.2725822e-05
  3.9216399e-02
 -9.9588695e-05
 -3.4252275e-02
  2.1129421e-05
 -3.4676312e-05
  2.1154377e-04
 -8.9343690e-04
  1.2620394e-04
  1.0056330e-02
 -6.7244167e-05
  9.3029439e-02
  1.1382212e-01
 -2.8961920e-05
  7.5332966e-04
 -8.1041799e-05
  2.0499676e-03
  1.2266880e-03
 -1.1908226e-04
 -1.3655388e-01
 -7.3163183e-06
 -5.0419880e-05
  8.1618346e-04
 -9.0066658e-04
 -1.9997938e-03
  1.7569028e-01
  2.0344208e-03
 -2.3983401e-01
 -4.6679211e-01
  1.3656277e-04
 -1.7486810e-04
  1.7464596e-03
 -1.4704234e-04
  2.8985280e-03
  4.4396344e-05
 -2.9817907e-04
  6.6737254e-04
 -5.0635361e-05
  5.9324972e-05
  6.5050833e-04
  6.6939858e-05
  9.5742012e-05
 -3.4831773e-04
 -1.8489482e-04
  9.7920769e-04
  1.1855161e-03
  7.9623118e-05
  5.1482447e-04
 -6.5017398e-04
 -6.6210079e-05
 -9.5532741e-04
  6.2711282e-05
 -3.6570907e-04
 -1.0464602e-04
  1.9213280e-01
 -2.7286434e-01
 -1.2345172e-01
 -1.2688859e-01
 -1.9560753e-01
 -2.1319807e-02
 -2.0244414e-02
 -2.7067459e-01
 -1.0491571e-03
  3.5522047e-01
 -4.5724443e-04
 -4.2779688e-05
 -2.5362265e-01
 -7.1724639e-06
  1.4534241e-05
 -2.1575135e-03
 -2.9205004e-05
 -2.9150605e-01
 -5.1212117e-02
 -7.6576136e-05
 -1.7371160e-04
  7.0858376e-05
 -2.1076987e-03
  1.9659622e-01
  6.2701153e-04
 -1.4773421e-05
 -6.7843534e-06
 -5.5900408e-04
 -5.5034121e-05
 -1.9094770e-04
  6.0441655e-01
  5.6831247e-01
  2.9502305e-01
 -2.3969846e+00
  2.0970926e-01
 -4.4881654e-04
 -7.9166032e-02
 -2.9719415e-01
  2.2501977e-04
 -9.0922447e-05
 -1.4970674e-05
 -3.0015918e-04
 -6.7280513e-01
 -5.8710397e-05
  8.4952037e-05
 -2.5947005e-02
 -6.7110617e-05
 -7.7272046e-01
 -2.8950459e-01
 -1.2934051e-04
  1.0575908e-04
 -2.4704332e-04
 -6.1827124e-04
 -1.6489799e-01
 -4.4785178e-04
  4.2820655e-04
  4.9885601e-04
 -7.9696745e-02
  1.3286795e-04
 -3.0533117e-04
  6.2351937e-05
 -1.3739949e-04
 -1.9293686e-04
 -1.0797635e-04
  2.8629950e-04
 -1.5800403e-04
 -2.6479471e-04
  7.5303542e-05
 -5.5972696e-04
 -1.2044532e-04
 -2.4568921e-04
  1.6300270e-04
 -8.2872386e-05
  2.5631822e-04
 -2.5829082e-04
  2.6205618e-05
  1.3664101e-06
  5.6308298e-05
 -4.6470188e-04
 -1.6181421e-04
 -4.3379216e-05
  2.4445226e-06
 -4.8258060e-04
 -5.4211047e-04
  1.1933506e-04
  1.5708651e-04
  4.9919610e-05
 -3.4411883e-04
  1.4565981e-04
 -1.2627838e-05
  3.1757669e-04
 -1.9133222e-01
  8.0485374e-02
  4.7373629e-04
 -6.0856974e-01
  7.8903737e-05
 -1.8518817e-04
 -2.7460154e-04
  1.7551992e-04
 -6.3565420e-04
  7.0375594e-05
 -1.7371001e-04
 -2.0166102e-04
  1.0497457e-03
 -4.9836344e-05
  2.6510065e-04
  4.0371975e-05
 -4.0220257e-05
 -2.0410212e-04
  2.9557664e-04
  1.5539012e-04
  3.6245235e-04
  2.1194589e-04
  2.9154704e-04
 -1.2889251e-04
 -3.9774604e-04
 -1.8797716e-04
  3.6275957e-05
 -4.0106956e-04
 -2.6345826e-04
 -3.2500367e-04
  5.9214902e-01
  6.0452381e-03
  2.3468381e-05
  7.9306197e-01
 -7.4442651e-04
  4.5603828e-04
  2.6262820e-02
 -6.2023151e-05
  9.3482144e-04
 -1.1534057e-04
  1.2456962e-04
 -2.7350415e-04
  1.5446411e-04
  1.3011675e-03
 -2.2936427e-05
 -2.3493505e-04
  1.1076937e-04
 -1.7724959e-04
 -4.4672753e-04
  2.0415346e-04
 -7.1796348e-05
 -9.2273942e-05
  2.9796569e-04
 -5.0283066e-04
  1.8998244e-05
 -2.9820632e-05
 -2.8525121e-04
  2.0335177e-04
  5.3868202e-06
  1.9066169e-05
 -8.5167699e-02
 -6.0190499e-01
  1.2705633e-05
 -6.2807310e-01
  2.5392967e-04
  1.2220723e-04
  2.0054729e-05
 -2.4468056e-04
 -1.2185728e-04
  1.0091312e-04
 -1.8358976e-04
 -1.8918375e-04
  1.2199423e-04
 -3.6964564e-05
 -3.7571523e-04
 -4.6932074e-04
 -3.2246727e-04
 -2.5057312e-04
  2.1335254e-04
 -1.3338826e-03
 -9.0507456e-05
 -2.3029551e-04
  4.0428745e-04
 -2.7724620e-05
 -9.6102965e-05
  2.6270165e-05
 -6.8982760e-04
  1.8678315e-05
  4.8600061e-05
 -4.1184474e-02
  1.3864063e-01
 -3.7043172e-01
 -2.8569272e-02
  4.7316112e-02
  1.9366764e-02
  4.1473124e-02
  9.9416249e-02
  8.9111498e-05
  1.0253412e-03
  7.4387048e-05
  1.9303385e-04
  4.0704390e-04
 -5.9787306e-04
  1.8829653e-02
  1.6450839e-01
 -1.5119277e-04
  8.9010922e-04
  9.5197829e-05
  2.1385658e-05
  1.8712908e-03
  1.8987442e-04
  2.5458324e-01
  3.3495319e-03
  1.2177617e-04
 -9.1953063e-04
  3.7791935e-04
  2.7326909e-03
 -1.7928208e-04
 -2.8474200e-05
 -5.4464693e-04
  2.3876908e-01
  5.5923015e-01
  6.1316468e-04
  6.0661685e-01
  1.5639496e-04
  3.1892754e-04
  7.1618619e-04
  6.6412627e-05
  1.4667405e-04
 -2.4623066e-04
  1.0627806e-04
  2.7646846e-04
  3.0629034e-04
 -8.7355256e-05
  1.1651606e-04
  5.6834673e-05
 -1.1474240e-04
 -5.3966016e-04
  3.0084859e-04
 -1.4726340e-04
  1.0938130e-04
  3.1612889e-04
  3.7401752e-04
 -2.1259778e-04
 -1.3244055e-04
  5.2649182e-05
 -3.4409208e-05
 -7.4146395e-05
  2.2841799e-04
 -2.4125546e-04
  2.7532357e-01
  1.0863718e-01
 -4.5314744e-05
  4.9696553e-01
 -2.6591378e-04
 -1.9316978e-04
  5.5510306e-04
  3.6161259e-04
 -1.1637757e-04
  1.8614996e-04
  7.5671567e-05
  2.8814477e-04
 -3.9423354e-05
  1.5267306e-04
 -4.1930701e-04
 -5.0992356e-05
  1.3794037e-05
 -4.3727973e-04
 -2.7656934e-04
  3.0626081e-05
  9.0360281e-06
  1.1033288e-03
 -5.3615525e-04
  1.4862108e-05
  1.7070051e-04
 -1.3787103e-07
  2.8015053e-04
 -7.0063055e-05
  4.1420255e-05
  4.2502684e-04
 -2.0050747e-02
 -2.4224319e-03
  5.1651659e-05
 -3.8729155e-01
  7.3889278e-05
  7.9036008e-06
 -2.3947536e-05
  9.3911098e-05
 -1.8061174e-04
 -4.5595437e-04
 -2.0798005e-04
  2.2623912e-05
 -1.6995455e-04
  1.5721616e-06
 -1.8278460e-04
  3.2449952e-05
  7.9228776e-04
 -2.3240372e-04
 -3.1379386e-05
 -7.2437644e-05
  1.1353181e-04
 -8.5692380e-05
 -4.1612468e-05
 -3.4159984e-04
  1.1850852e-04
  3.8562558e-04
  7.5958713e-05
  1.9035866e-03
 -2.8385837e-03
 -8.0475760e-01
  1.2321651e+00
 -1.1408066e-01
  3.6989093e-01
 -1.9560204e-01
  3.6515240e-04
 -3.7147012e-01
 -1.6769743e-01
 -1.5737455e-01
  5.0532565e-02
 -5.1258719e-01
  1.1554537e-04
 -8.4895265e-01
 -9.2477143e-01
 -4.3971950e-01
 -4.8160461e-01
  9.6587890e-01
 -3.2202885e-01
 -3.4705389e-02
 -3.7015358e-01
 -9.6433342e-01
  3.8158807e-01
 -2.6811796e-01
 -2.0795230e-02
  6.5607722e-03
  5.2465248e-04
  2.9533156e-04
 -5.5468522e-02
  2.0850258e-01
 -7.7934747e-05
  1.2651874e+00
  5.8973730e-01
  7.1073967e-01
  3.1085420e-01
 -2.2728927e-01
  5.5585302e-02
  1.9207239e-01
 -5.6116050e-01
  6.4578837e-01
  8.5823976e-02
 -1.7515476e+00
  3.1340256e-01
  1.1147885e+00
  7.4155408e-01
  1.2575792e-01
  2.4296758e-01
  4.0149340e-01
 -1.6520840e+00
 -2.1175256e-01
 -1.1441071e+00
  5.6081808e-01
  7.1181814e-05
  8.4953986e-02
  2.0553716e-01
  2.3907784e-01
 -8.6621243e-01
 -1.6091967e-01
 -1.0074577e-01
  3.0765371e-02
 -5.2450764e-01
  2.3438029e-01
 -3.3116016e-01
  8.3056885e-01
 -1.6189592e+00
  7.0050567e-01
 -2.8877318e-01
 -4.9834248e-01
 -2.5993827e-01
 -6.1634922e-01
 -7.7017826e-01
  4.6452323e-01
  1.2765995e+00
 -1.1660721e+00
 -9.1760522e-01
 -6.9630957e-01
 -4.9146971e-01
  4.3806028e-01
  1.8921306e+00
  2.5227135e-01
 -3.3419099e-01
 -3.4647512e-01
 -1.1255297e-04
 -2.9191121e-01
  4.4154471e-01
 -1.0674146e+00
  4.9366149e-01
  9.1991889e-01
  2.5723556e-01
 -9.6759662e-02
 -1.1700099e+00
  6.9105496e+00
  1.1590425e+00
  1.5137750e+00
  5.8495104e-01
  1.0787660e+00
 -2.9608998e-01
  4.9780262e-01
 -1.0246416e+00
  2.6028273e+00
 -1.1332485e-01
 -6.9798422e-01
  9.3894744e-01
 -2.5890052e-01
  3.8048539e+00
 -8.3812201e-01
 -9.8813206e-01
 -1.5133034e+00
  9.8281676e-01
  1.6058079e+00
  1.4879320e+00
 -9.6889520e-01
 -9.5160508e-01
  4.3781963e-01
 -1.5739981e+00
  2.5758198e-01
  4.5391181e-01
 -4.7772324e-01
 -2.9356406e+00
  8.6632210e-01
 -1.4659895e+00
  2.0210159e-01
 -5.2673411e-01
 -1.8110291e+00
 -1.1787688e+00
 -5.9937205e-02
 -1.8752201e-01
  1.2642280e+00
 -2.6306477e-01
  9.9619013e-01
  6.6017413e-01
  9.9558723e-01
 -7.0293403e-01
 -5.0670958e-01
 -1.7292660e+00
 -1.2367321e+00
  1.1304196e+00
 -1.2309681e+00
 -1.7327298e+00
 -2.0171531e-01
  1.1178356e+00
  9.6012497e-01
  3.5333192e-01
  4.1809100e-01
 -1.5537909e-01
  1.5969282e+00
  6.7557818e-01
 -2.0063183e+00
 -8.6133659e-01
 -5.0280738e-01
  3.1532910e-01
 -1.5060546e+00
 -1.9768465e+00
  4.8518172e-01
  2.8224993e+00
  8.5699208e-02
 -8.5209841e-01
 -3.8063788e-01
  5.2830122e-02
  1.3768108e-01
 -2.8915671e-01
  7.7536714e-01
  1.3805151e+00
  8.5413289e-01
  6.2737745e-01
  6.6272968e-01
 -1.0622267e-01
  1.7766863e+00
 -1.5050453e+00
  8.6657412e-02
 -1.9260795e-01
  9.9781412e-01
 -9.6020710e-01
  9.2814416e-01
 -2.6335323e-01
  1.2438263e+00
  7.6211208e-01
  7.9950815e-01
  5.2534652e-01
 -1.3621869e+00
  2.6049623e-01
  1.1023967e+00
 -7.1000105e-01
  1.0021181e+00
  1.7329594e-01
  1.0809811e-02
  1.1452147e-01
 -4.9679384e-01
  4.4251883e-01
 -1.4162017e-01
 -3.9832664e-01
  2.8388762e-01
  1.0391165e+00
  2.0960946e+00
 -2.2998013e-01
  9.2648375e-01
  5.0799805e-01
  3.1420836e-01
  8.3661383e-01
  3.1153008e-01
 -2.6913783e-01
  4.7614890e-01
  1.9581202e-01
  6.3050109e-01
 -2.2620990e+00
  3.3955812e-01
  1.1913817e+00
  5.1676508e-02
  2.5190666e-01
 -8.5411680e-01
 -6.9669849e-01
 -1.9815615e+00
 -1.1030335e+00
 -1.6121908e-01
  7.0190296e-02
 -5.6891906e-01
 -7.5275544e-04
 -1.1202956e+00
 -2.3655300e+00
  1.7713497e+00
 -4.3348655e-01
 -5.8133614e-01
  3.1373417e-01
 -4.6971044e-01
  1.7162677e+00
  1.2699341e+00
 -9.0977985e-01
 -1.1265378e-02
 -5.7268256e-01
 -2.9940933e-02
  1.0930727e+00
  1.7414100e+00
 -4.1036165e-01
 -1.5785009e+00
  1.9309656e-01
  8.1521255e-01
 -1.0994499e+00
  8.7880743e-01
 -5.9854996e-01
 -9.6166529e-02
 -4.1046390e-01
 -1.5792949e+00
  8.6762822e-01
 -1.4534602e+00
 -1.0164380e+00
  3.6837593e-02
  6.6918068e-02
  1.0051100e+00
 -1.6855378e+00
 -4.5767125e-02
 -2.2133835e-01
 -6.2636155e-01
  4.3804035e-01
  3.5701960e-01
 -8.5216528e-01
 -7.3753548e-01
 -1.6932698e+00
 -1.1181746e+00
 -1.0262096e+00
  4.2932543e-01
  6.8723047e-01
 -9.1634206e-02
  9.5379323e-01
  1.3134363e+00
 -2.5436127e-01
 -2.3023872e-01
 -2.9960421e-01
  9.8878644e-02
  3.0870514e-03
 -1.7055376e-04
 -9.0552341e-05
 -8.8021725e-01
  1.7288637e+00
  4.0719831e-01
 -2.5700411e-01
  8.0199677e-01
 -1.5665574e+00
 -1.8955630e-01
  1.3013512e+00
  7.3347318e-01
  4.2518135e-02
  9.8152477e-01
 -9.2501372e-01
 -4.2661682e-01
 -6.9468224e-01
  1.2081568e-02
 -1.1138786e+00
 -6.5749824e-01
  5.5483884e-01
  1.5113000e+00
 -9.8637021e-01
  2.0566182e+00
  1.4737394e+00
 -1.8838996e+00
  8.7888503e-01
 -6.5864706e-01
  1.1141045e+00
  2.8522314e-05
  1.4712518e-01
 -1.0033706e+00
  5.6531876e-01
 -9.7704649e-02
 -4.5330915e-01
  4.1743243e-01
 -5.9460622e-01
 -3.6358261e-01
  1.6121678e-03
  9.5152581e-01
  4.2807005e-02
 -1.3985206e+00
 -1.7036105e+00
  1.2179272e+00
  4.7822747e-01
  5.4012407e-02
  7.5535744e-01
 -3.6177859e-01
 -8.8219947e-01
 -2.0574683e-01
 -1.0459360e+00
  5.0922269e-01
 -3.8525799e-01
  6.2205923e-01
  7.3555762e-01
  1.9440049e+00
 -2.1059938e-04
 -2.9784769e-02
 -1.1435467e+00
  7.8407210e-01
  1.3069028e+00
  1.9411297e+00
  1.8926127e-01
 -1.7187296e-01
 -1.8223691e-01
 -1.3579333e+00
 -1.1518604e+00
  4.2374450e-01
 -1.2502794e+00
 -5.8371902e-01
  6.1231399e-01
  2.7012184e+00
  3.2761991e+00
 -1.1186398e-01
 -1.9629216e+00
 -9.7114754e-01
 -6.3323492e-01
  4.3611714e-01
  1.3630067e+00
  5.0446194e-01
  8.6300439e-01
  5.4305744e-01
 -1.9431878e+00
 -7.7080792e-01
  4.1943766e-02
  2.3736076e+00
 -1.8997453e+00
  7.2511262e-01
  9.0809965e-01
  8.1169921e-01
  1.4474709e+00
 -1.3236055e+00
  3.7731150e-01
 -5.1861942e-01
  1.9383619e+00
 -2.6524184e+00
 -9.7120112e-01
 -6.9383889e-02
  1.8410261e+00
  1.2920703e+00
  1.7754427e+00
 -1.5623670e+00
  1.1507979e-03
  1.7189107e+00
  5.6690735e-01
  6.3155073e-01
  1.1352357e+00
  6.9240212e-01
  1.4719698e-03
  4.9823269e-01
 -1.3810623e+00
 -1.3863827e-01
  4.1635561e-01
 -1.7977566e-01
 -2.7067735e+00
 -5.5229986e-01
 -2.9541509e+00
 -1.0138410e+00
  1.9288043e+00
  7.8053385e-01
 -1.4010617e+00
  4.2054063e-01
  1.1331392e-01
 -8.4273350e-01
  1.7557765e+00
  2.8081694e+00
  4.8410758e-01
 -9.7870892e-01
 -7.3268890e-01
 -2.1797698e+00
 -9.9787569e-01
  5.6938946e-01
 -2.5650201e+00
 -1.5374345e+00
  3.5787290e-01
  1.0045229e-01
  4.9764130e-01
 -1.7564683e-01
 -1.3521962e+00
  4.1663629e-01
 -5.5503035e-01
 -1.5015279e-01
  7.0219719e-01
 -1.8713659e+00
  8.0747628e-01
  7.9121065e-01
  1.2136278e-01
 -4.2557251e-01
 -1.9481683e+00
  2.0841014e-01
 -1.3420506e+00
 -2.0522830e-01
 -4.1775748e-01
  1.3944248e+00
  8.6444890e-01
 -4.8447418e-01
  1.1208019e-02
  1.1199029e-01
 -4.6718679e-03
  1.1296486e-02
 -5.5801159e-01
 -3.2008648e-01
 -1.1258163e-01
  3.1577232e-01
  3.8663554e-04
  1.2137166e-03
  2.2217374e+00
 -1.6932230e-01
 -5.5094707e-01
 -1.1544039e-01
  7.7673990e-01
 -1.3778753e+00
  3.1575304e-01
 -9.4731295e-05
  8.9728385e-02
 -6.3271689e-01
  6.6998792e-01
 -6.7451037e-02
  2.0705746e-01
  5.6514698e-01
 -2.9631414e+00
  7.0121753e-01
  8.7477607e-01
 -9.5218137e-02
  1.3791388e-01
 -1.1315137e+00
 -1.0835590e+00
  6.3846999e-01
 -6.6109663e-01
  1.5080748e-01
 -2.0179623e-01
  6.2026251e-03
 -1.3364480e-01
  3.0440179e-01
  6.0674697e-01
  7.2807252e-01
 -6.8316883e-01
 -3.3519647e-01
  6.7842454e-01
  5.3155839e-01
  3.5904555e-03
  3.0455336e-01
 -5.2721494e-01
 -2.2852215e-01
 -1.3541060e-03
  7.2272104e-01
 -3.1310892e-01
 -5.3735625e-02
 -1.1692317e+00
  1.0690319e-01
  6.1348584e-02
  9.1920084e-01
 -8.7043136e-01
 -1.3219817e-01
 -1.4989067e+00
 -1.8400803e+00
 -3.8643542e-01
  7.8189057e-01
  3.1320503e-01
  2.1079660e-03
 -7.6797152e-01
  2.3740577e-02
  2.1668367e-01
  5.8644956e-01
 -4.7795755e-01
  3.1365097e-01
  1.3946044e+00
  4.1407949e-01
  5.6435597e-01
  7.7770388e-01
 -1.0564300e+00
  4.6405625e-02
  3.8686800e-01
 -1.1355319e-01
  1.7542906e-01
  6.3656694e-01
  1.6993924e+00
  9.6531421e-01
  9.4517186e-02
  2.0958190e-01
 -2.0121212e+00
 -2.0920821e-01
 -3.3374679e-01
  2.6579318e-04
  6.3947613e-05
 -9.5239448e-05
  5.2432081e-04
 -4.4369036e-01
  6.9238037e-01
  2.0608589e-01
  2.1136751e+00
 -2.1789469e-01
  9.4504903e-05
  2.7940350e-04
  6.6435528e-01
  1.3077232e+00
  4.2986777e-01
 -5.3707397e-01
 -4.3931841e-03
 -1.0047742e-02
  3.7742457e-03
 -2.1451134e-02
 -7.9139060e-01
  1.1802565e+00
  1.3336920e+00
 -6.5591030e-02
 -1.8317026e-01
 -3.5847795e-01
  2.9753746e-05
 -9.4466561e-01
 -1.5704337e+00
 -6.9856721e-01
 -6.6340201e-02
 -8.3787556e-05
  1.3900113e+00
  4.1769725e-01
 -2.8278995e-01
  1.4996423e+00
 -3.9517102e-01
 -5.8029169e-01
  4.2603308e-01
  1.4451622e+00
  1.3903522e+00
  1.2937038e-01
 -2.7202278e-01
 -1.2503194e+00
  4.1633359e-01
 -7.7248144e-01
  7.4823666e-04
 -8.0261931e-02
 -1.0494610e-04
 -5.0962040e-05
 -1.0156112e+00
 -8.8936406e-01
 -1.4469249e+00
 -1.0390577e+00
  1.6660117e-04
 -6.0720899e-04
  8.0620341e-02
 -1.5977607e-04
  4.6302551e-01
 -7.0990556e-01
 -4.3865207e-01
  1.0142140e-02
  3.3747435e-02
 -2.4083428e-04
 -4.1207573e-01
 -5.1352888e-01
  1.0308430e+00
  8.9626455e-01
 -1.0425677e+00
  2.8996089e-01
  6.9816196e-01
  1.4619282e+00
  1.2666817e-01
 -4.0899985e-02
 -1.7889258e-01
  1.5857650e+00
  9.6493518e-01
  9.5936433e-05
  1.3146839e+00
  5.7495874e-01
  1.0506309e+00
 -1.4701979e-04
 -3.2734431e-05
 -9.5475979e-02
  1.3375623e-04
 -5.7128542e-05
  1.2573241e-01
  1.1270547e+00
  1.2141625e+00
 -8.0160552e-01
  3.6919940e-01
  4.3759245e-02
 -5.0648624e-01
  9.1590047e-01
  1.1418105e+00
 -4.7388272e-03
 -1.5137282e-01
 -1.0100383e+00
  7.9203826e-01
 -9.0981252e-04
 -1.2846378e-04
 -6.1075818e-03
  3.4375400e-03
 -1.0821172e-04
  1.5799138e-01
  1.9804327e+00
  1.1805581e+00
 -1.5338032e-01
  1.3980144e-04
  1.4423012e-03
 -5.2514132e-02
  1.0584409e+00
  8.9675665e-01
 -1.2520373e-02
  1.9117459e+00
  1.5549432e+00
 -8.5446469e-02
 -3.8087797e-01
 -1.5726866e-01
 -9.6293771e-01
  7.8808081e-01
  3.9896458e-01
  5.9718376e-01
  3.4454983e-01
  6.1915523e-01
  6.1111413e-02
  4.0686646e-04
  7.7148085e-05
 -1.2775882e+00
  6.3424450e-01
  8.4564757e-01
 -7.7542371e-01
  2.4231400e-01
  1.2446290e+00
  9.6462417e-01
 -3.1160650e-01
  3.1362154e-04
 -4.0379593e-01
 -7.7031171e-01
  7.6088374e-03
 -2.8545226e-04
  1.6712396e+00
  2.0869586e+00
  2.0382267e-01
  3.3666487e-04
 -2.5530942e-04
 -3.1340003e-01
 -6.0753721e-01
  3.3677897e-01
 -3.8552359e-01
 -1.6569999e+00
 -4.3679118e-01
 -6.2584853e-01
  9.0065432e-01
  1.4371421e+00
 -5.9956855e-01
 -5.8396715e-01
 -5.1325339e-01
  6.4348849e-04
 -2.3164766e-01
 -1.4760197e+00
 -3.5568368e-01
 -2.7521726e-04
  1.0762278e-03
 -1.3933688e+00
 -6.2879603e-06
 -2.0808347e-05
  4.3077207e-01
 -1.7396778e-01
  7.3335046e-01
 -1.3924376e+00
  1.6267893e+00
  3.5833284e-01
  1.1244773e+00
 -2.7286506e-01
 -2.0088276e-01
  3.5373080e-01
 -1.7399143e+00
 -7.0619708e-01
 -6.3315570e-01
  1.7238057e-03
  3.0404214e-02
 -1.2544955e-01
 -1.4850706e-01
 -4.6765509e-01
 -4.5219150e-01
  4.5959838e-02
  1.8245094e-01
 -2.9977912e-01
  1.1447492e+00
  6.5744948e-01
 -4.1938157e+00
 -2.7055632e-06
  6.2746316e-05
  6.6779912e-02
  1.2966801e+00
 -1.2071966e-01
  3.2385236e-01
  4.5302313e-02
  4.3088426e-03
 -5.7885194e-01
 -6.4499635e-01
 -4.6089035e-01
  6.4928137e-02
  3.5773188e-01
 -1.5166841e+00
 -5.2762121e-01
  5.6029010e-01
  1.4488109e+00
  1.3512150e+00
 -2.9591491e-02
  1.5654380e-04
  7.5353694e-01
  7.1941781e-01
  3.3185441e-02
  1.4948168e-01
  1.7389597e-01
  8.9331120e-01
  1.1609778e+00
  1.4422305e-01
 -1.1663807e-02
  8.6804289e-01
 -1.9331859e-01
 -1.2748951e-01
 -1.5660384e-01
  1.0300320e+00
  8.1334269e-01
 -1.1904085e+00
 -7.7820873e-01
 -4.6976036e-01
 -5.7534982e-02
  1.3858148e-01
 -2.2310406e-01
 -3.4684741e-01
 -1.5783721e-01
 -1.2795459e-02
 -2.6038748e-01
  7.4644372e-02
  2.0869522e-01
 -3.4397900e-01
  1.1861435e-01
  1.0189429e-01
 -2.1090302e+00
  1.1424651e-04
  4.3924910e-04
  4.8160306e-01
 -1.9257033e-05
  2.6285517e-04
  2.5658801e-04
  1.6052807e-05
  1.5914808e-05
  1.8838559e+00
 -1.9858515e-02
 -7.7146320e-03
  5.7785934e-01
  2.5510240e-01
  2.9590309e-01
 -1.8208555e+00
  1.3142198e-01
 -1.4592052e-02
  2.0008929e+00
 -5.1686153e-02
 -6.0218990e-02
  7.4566644e-01
 -5.6447475e-03
 -2.0011512e-04
  1.0504016e-03
  3.5301140e-01
 -1.5301041e-01
 -1.3385422e+00
  1.1906110e-04
 -2.0300127e-04
  1.4708645e+00
  1.6600434e-01
  1.7872883e-04
 -2.8884867e-01
 -1.1443274e+00
  2.1850583e-01
 -3.0933015e-02
 -1.6249131e-01
 -3.1090304e-01
  7.5514674e-01
 -1.2474221e-03
  1.1401224e-05
 -1.7714804e+00
  5.5379558e-01
  1.1434833e+00
 -1.8115558e-01
 -3.0304756e-04
 -1.2232012e-03
  1.2836741e+00
  1.3022949e+00
  1.6686684e-02
 -1.3999790e-01
  1.7508732e-01
  1.2117456e+00
 -1.1067632e+00
 -7.3379382e-02
 -3.4136343e-01
  8.4903425e-01
  3.4008332e-02
  2.0966304e-02
  5.7278019e-01
  1.2107973e-03
  2.1776302e-02
 -2.3949058e+00
 -5.1383364e-01
 -2.9624540e-01
  1.4755803e-01
 -1.2034786e-01
  1.4306288e-02
 -1.9558546e-01
 -2.0104963e-02
  1.0920930e+00
  6.9663984e-01
  1.4897548e-01
  3.0608144e-01
  5.4309458e-01
 -4.7308221e-01
 -3.7509346e-01
  9.8025542e-01
  3.7900838e-01
 -2.1188922e+00
  2.8350481e-01
 -1.0704380e-04
  3.3149638e-04
 -2.9370518e-04
 -1.1543040e-04
  1.3995283e-04
  5.0901824e-01
  1.4499165e+00
  5.3493041e-01
  6.1484575e-01
  3.1575593e-01
  3.8334849e-01
  1.0286978e+00
 -4.2941621e-01
 -2.7788836e-01
 -5.3734905e-01
 -1.1198014e+00
 -2.8990641e-01
  4.8897243e-01
 -1.7675628e-03
  1.4729216e-04
 -1.6516951e+00
  2.9287048e-04
  2.4600420e-04
 -2.1773059e+00
  1.1003069e-01
 -8.9392477e-01
 -8.8302121e-03
  3.3946861e-02
  2.1489833e-01
  9.0755248e-01
 -7.3416233e-01
 -7.7186549e-01
 -6.8912899e-01
  1.1586897e+00
  5.5262166e-01
  8.1291132e-02
 -3.8689375e-04
  8.1801659e-04
  1.6375691e+00
  2.1800633e-01
 -4.2087540e-01
 -1.0973284e+00
  1.9448464e+00
  1.0490766e+00
  1.2182930e+00
  2.2313650e-01
  8.9530309e-05
  1.3316423e+00
 -6.3029355e-01
 -1.4338449e-01
 -1.1627197e+00
 -1.0695422e-01
 -1.6566466e-01
 -1.3083993e+00
  6.0916680e-01
  1.7156564e-01
 -1.8472573e+00
 -3.6690485e-01
  6.4078912e-02
 -8.1365538e-01
  1.5765487e-01
 -3.7851546e-02
 -6.4115296e-04
 -8.5594374e-01
  1.6462103e-04
  1.3831596e-01
 -5.5120903e-01
 -7.6776497e-02
  6.0733978e-02
  6.0733978e-02
  6.0733978e-02
  6.0733978e-02
  6.0733978e-02
  2.4177834e-01
  2.4177834e-01
  2.4177834e-01
  2.4177834e-01
  2.4177834e-01
  1.0026275e-01
  1.0026275e-01
  1.0026275e-01
  1.0026275e-01
  1.0026275e-01
  2.5958149e-02
  2.5958149e-02
  2.5958149e-02
  2.5958149e-02
  2.5958149e-02
  1.2968860e-02
  1.2968860e-02
  1.2968860e-02
  1.2968860e-02
  1.2968860e-02
  1.0222615e-01
  1.0222615e-01
  1.0222615e-01
  1.0222615e-01
  1.0222615e-01
